<?xml version="1.0"?>
<opencv_storage>
<stage2>
  <maxWeakCount>7</maxWeakCount>
  <stageThreshold>-1.5590679645538330e-01</stageThreshold>
  <weakClassifiers>
    <_>
      <internalNodes>
        0 -1 46822 -2.7433903887867928e-02</internalNodes>
      <leafValues>
        6.2820512056350708e-01 -8.5964912176132202e-01</leafValues></_>
    <_>
      <internalNodes>
        0 -1 343280 -7.9174209386110306e-03</internalNodes>
      <leafValues>
        9.8253452777862549e-01 -6.9556468725204468e-01</leafValues></_>
    <_>
      <internalNodes>
        0 -1 24081 -3.6038763937540352e-04</internalNodes>
      <leafValues>
        5.7325047254562378e-01 -9.5045965909957886e-01</leafValues></_>
    <_>
      <internalNodes>
        0 -1 307199 -1.8478623824194074e-03</internalNodes>
      <leafValues>
        3.6519137024879456e-01 -1.</leafValues></_>
    <_>
      <internalNodes>
        0 -1 354207 2.4144912138581276e-02</internalNodes>
      <leafValues>
        4.4605991244316101e-01 -9.7971618175506592e-01</leafValues></_>
    <_>
      <internalNodes>
        0 -1 200277 1.6426503134425730e-04</internalNodes>
      <leafValues>
        -9.0689080953598022e-01 3.5623902082443237e-01</leafValues></_>
    <_>
      <internalNodes>
        0 -1 186621 -1.8059272406389937e-05</internalNodes>
      <leafValues>
        9.1836571693420410e-01 -4.9582281708717346e-01</leafValues></_></weakClassifiers></stage2>
</opencv_storage>
