<?xml version="1.0"?>
<opencv_storage>
<cascade>
  <stageType>BOOST</stageType>
  <featureType>HAAR</featureType>
  <height>30</height>
  <width>30</width>
  <stageParams>
    <boostType>GAB</boostType>
    <minHitRate>9.9500000476837158e-01</minHitRate>
    <maxFalseAlarm>3.0000000260770321e-03</maxFalseAlarm>
    <weightTrimRate>9.4999999999999996e-01</weightTrimRate>
    <maxDepth>1</maxDepth>
    <maxWeakCount>100</maxWeakCount></stageParams>
  <featureParams>
    <maxCatCount>0</maxCatCount>
    <featSize>1</featSize>
    <mode>BASIC</mode></featureParams>
  <stageNum>5</stageNum>
  <stages>
    <!-- stage 0 -->
    <_>
      <maxWeakCount>4</maxWeakCount>
      <stageThreshold>-1.6920219361782074e-01</stageThreshold>
      <weakClassifiers>
        <_>
          <internalNodes>
            0 -1 31 2.5839947164058685e-02</internalNodes>
          <leafValues>
            -9.6078431606292725e-01 1.</leafValues></_>
        <_>
          <internalNodes>
            0 -1 29 1.1005591601133347e-02</internalNodes>
          <leafValues>
            -9.6548193693161011e-01 8.9009261131286621e-01</leafValues></_>
        <_>
          <internalNodes>
            0 -1 10 8.2223445177078247e-02</internalNodes>
          <leafValues>
            -9.7591739892959595e-01 7.5706410408020020e-01</leafValues></_>
        <_>
          <internalNodes>
            0 -1 30 4.6413958072662354e-02</internalNodes>
          <leafValues>
            -7.7186363935470581e-01 1.</leafValues></_></weakClassifiers></_>
    <!-- stage 1 -->
    <_>
      <maxWeakCount>6</maxWeakCount>
      <stageThreshold>8.2700467109680176e-01</stageThreshold>
      <weakClassifiers>
        <_>
          <internalNodes>
            0 -1 6 -7.4529722332954407e-02</internalNodes>
          <leafValues>
            -1. 8.9024388790130615e-01</leafValues></_>
        <_>
          <internalNodes>
            0 -1 19 -2.5448087602853775e-02</internalNodes>
          <leafValues>
            -9.8357164859771729e-01 5.7082200050354004e-01</leafValues></_>
        <_>
          <internalNodes>
            0 -1 2 -1.8698956817388535e-02</internalNodes>
          <leafValues>
            8.0378621816635132e-01 -8.9806395769119263e-01</leafValues></_>
        <_>
          <internalNodes>
            0 -1 22 -2.8893247246742249e-02</internalNodes>
          <leafValues>
            -8.3641022443771362e-01 6.5153193473815918e-01</leafValues></_>
        <_>
          <internalNodes>
            0 -1 21 -2.2269593551754951e-02</internalNodes>
          <leafValues>
            -9.4765251874923706e-01 5.0479817390441895e-01</leafValues></_>
        <_>
          <internalNodes>
            0 -1 4 -1.4151579700410366e-02</internalNodes>
          <leafValues>
            7.1680802106857300e-01 -8.9232736825942993e-01</leafValues></_></weakClassifiers></_>
    <!-- stage 2 -->
    <_>
      <maxWeakCount>9</maxWeakCount>
      <stageThreshold>-4.8421707749366760e-01</stageThreshold>
      <weakClassifiers>
        <_>
          <internalNodes>
            0 -1 3 -2.3238460719585419e-01</internalNodes>
          <leafValues>
            5.7291668653488159e-01 -9.7796142101287842e-01</leafValues></_>
        <_>
          <internalNodes>
            0 -1 35 -1.1797897517681122e-02</internalNodes>
          <leafValues>
            5.4267394542694092e-01 -8.3331614732742310e-01</leafValues></_>
        <_>
          <internalNodes>
            0 -1 28 -1.1270334944128990e-03</internalNodes>
          <leafValues>
            4.4389453530311584e-01 -9.7076594829559326e-01</leafValues></_>
        <_>
          <internalNodes>
            0 -1 7 3.0203536152839661e-03</internalNodes>
          <leafValues>
            -6.1384975910186768e-01 7.9871600866317749e-01</leafValues></_>
        <_>
          <internalNodes>
            0 -1 15 -5.7941749691963196e-03</internalNodes>
          <leafValues>
            -9.5347338914871216e-01 4.3396824598312378e-01</leafValues></_>
        <_>
          <internalNodes>
            0 -1 26 -2.3782739299349487e-04</internalNodes>
          <leafValues>
            4.1450670361518860e-01 -9.9577069282531738e-01</leafValues></_>
        <_>
          <internalNodes>
            0 -1 1 -4.7746762633323669e-02</internalNodes>
          <leafValues>
            8.3006179332733154e-01 -5.0870460271835327e-01</leafValues></_>
        <_>
          <internalNodes>
            0 -1 23 -1.4175017178058624e-01</internalNodes>
          <leafValues>
            -8.2179272174835205e-01 4.6082696318626404e-01</leafValues></_>
        <_>
          <internalNodes>
            0 -1 12 -1.4635205268859863e-02</internalNodes>
          <leafValues>
            4.0303584933280945e-01 -9.2202228307723999e-01</leafValues></_></weakClassifiers></_>
    <!-- stage 3 -->
    <_>
      <maxWeakCount>9</maxWeakCount>
      <stageThreshold>-6.2274277210235596e-02</stageThreshold>
      <weakClassifiers>
        <_>
          <internalNodes>
            0 -1 5 1.2280505150556564e-01</internalNodes>
          <leafValues>
            -9.0857142210006714e-01 3.5609754920005798e-01</leafValues></_>
        <_>
          <internalNodes>
            0 -1 38 9.0610124170780182e-03</internalNodes>
          <leafValues>
            -6.0278040170669556e-01 7.2436529397964478e-01</leafValues></_>
        <_>
          <internalNodes>
            0 -1 27 -2.2322167642414570e-03</internalNodes>
          <leafValues>
            -7.3224753141403198e-01 6.1532360315322876e-01</leafValues></_>
        <_>
          <internalNodes>
            0 -1 11 -2.3738411068916321e-01</internalNodes>
          <leafValues>
            3.8006114959716797e-01 -9.5749765634536743e-01</leafValues></_>
        <_>
          <internalNodes>
            0 -1 16 -7.5771706178784370e-05</internalNodes>
          <leafValues>
            -9.0014189481735229e-01 3.6397096514701843e-01</leafValues></_>
        <_>
          <internalNodes>
            0 -1 20 9.3724098405800760e-05</internalNodes>
          <leafValues>
            3.9402830600738525e-01 -8.8959878683090210e-01</leafValues></_>
        <_>
          <internalNodes>
            0 -1 17 -4.3841610022354871e-05</internalNodes>
          <leafValues>
            -7.8715658187866211e-01 3.1243962049484253e-01</leafValues></_>
        <_>
          <internalNodes>
            0 -1 8 -6.8278193473815918e-02</internalNodes>
          <leafValues>
            -9.0372943878173828e-01 3.5043355822563171e-01</leafValues></_>
        <_>
          <internalNodes>
            0 -1 25 1.2122437357902527e-02</internalNodes>
          <leafValues>
            3.1589129567146301e-01 -9.4362014532089233e-01</leafValues></_></weakClassifiers></_>
    <!-- stage 4 -->
    <_>
      <maxWeakCount>11</maxWeakCount>
      <stageThreshold>-7.1624413132667542e-02</stageThreshold>
      <weakClassifiers>
        <_>
          <internalNodes>
            0 -1 9 -1.6267672181129456e-01</internalNodes>
          <leafValues>
            -7.7272725105285645e-01 3.8364779949188232e-01</leafValues></_>
        <_>
          <internalNodes>
            0 -1 32 2.0285449922084808e-02</internalNodes>
          <leafValues>
            1.8283841013908386e-01 -9.8825573921203613e-01</leafValues></_>
        <_>
          <internalNodes>
            0 -1 24 -6.0746047645807266e-02</internalNodes>
          <leafValues>
            -8.8405966758728027e-01 2.1465435624122620e-01</leafValues></_>
        <_>
          <internalNodes>
            0 -1 37 -2.2871352848596871e-04</internalNodes>
          <leafValues>
            7.7474224567413330e-01 -3.8517168164253235e-01</leafValues></_>
        <_>
          <internalNodes>
            0 -1 13 -9.0049594291485846e-05</internalNodes>
          <leafValues>
            -6.5862590074539185e-01 4.1493350267410278e-01</leafValues></_>
        <_>
          <internalNodes>
            0 -1 14 -4.5505598187446594e-02</internalNodes>
          <leafValues>
            -4.8243442177772522e-01 6.1680442094802856e-01</leafValues></_>
        <_>
          <internalNodes>
            0 -1 36 1.7900113016366959e-02</internalNodes>
          <leafValues>
            -3.8901707530021667e-01 8.9159309864044189e-01</leafValues></_>
        <_>
          <internalNodes>
            0 -1 34 -2.2291518689598888e-05</internalNodes>
          <leafValues>
            3.6189514398574829e-01 -9.9280029535293579e-01</leafValues></_>
        <_>
          <internalNodes>
            0 -1 18 -6.9259345531463623e-02</internalNodes>
          <leafValues>
            -4.4452342391014099e-01 6.7798316478729248e-01</leafValues></_>
        <_>
          <internalNodes>
            0 -1 0 -5.4958974942564964e-03</internalNodes>
          <leafValues>
            7.1475881338119507e-01 -4.2413246631622314e-01</leafValues></_>
        <_>
          <internalNodes>
            0 -1 33 4.5972107909619808e-03</internalNodes>
          <leafValues>
            -5.5595225095748901e-01 5.2955394983291626e-01</leafValues></_></weakClassifiers></_></stages>
  <features>
    <_>
      <rects>
        <_>
          0 0 6 6 -1.</_>
        <_>
          0 0 3 3 2.</_>
        <_>
          3 3 3 3 2.</_></rects>
      <tilted>0</tilted></_>
    <_>
      <rects>
        <_>
          0 19 10 6 -1.</_>
        <_>
          5 19 5 6 2.</_></rects>
      <tilted>0</tilted></_>
    <_>
      <rects>
        <_>
          0 21 10 4 -1.</_>
        <_>
          5 21 5 4 2.</_></rects>
      <tilted>0</tilted></_>
    <_>
      <rects>
        <_>
          0 21 27 8 -1.</_>
        <_>
          9 21 9 8 2.</_></rects>
      <tilted>0</tilted></_>
    <_>
      <rects>
        <_>
          1 21 12 6 -1.</_>
        <_>
          7 21 6 6 2.</_></rects>
      <tilted>0</tilted></_>
    <_>
      <rects>
        <_>
          2 14 18 16 -1.</_>
        <_>
          2 22 18 8 2.</_></rects>
      <tilted>0</tilted></_>
    <_>
      <rects>
        <_>
          2 24 6 6 -1.</_>
        <_>
          2 26 6 2 2.</_></rects>
      <tilted>0</tilted></_>
    <_>
      <rects>
        <_>
          3 1 14 12 -1.</_>
        <_>
          3 1 7 6 2.</_>
        <_>
          10 7 7 6 2.</_></rects>
      <tilted>0</tilted></_>
    <_>
      <rects>
        <_>
          3 10 24 3 -1.</_>
        <_>
          11 10 8 3 2.</_></rects>
      <tilted>0</tilted></_>
    <_>
      <rects>
        <_>
          3 17 24 8 -1.</_>
        <_>
          11 17 8 8 2.</_></rects>
      <tilted>0</tilted></_>
    <_>
      <rects>
        <_>
          3 18 16 12 -1.</_>
        <_>
          3 24 16 6 2.</_></rects>
      <tilted>0</tilted></_>
    <_>
      <rects>
        <_>
          3 22 27 8 -1.</_>
        <_>
          12 22 9 8 2.</_></rects>
      <tilted>0</tilted></_>
    <_>
      <rects>
        <_>
          4 2 17 9 -1.</_>
        <_>
          4 5 17 3 2.</_></rects>
      <tilted>0</tilted></_>
    <_>
      <rects>
        <_>
          4 10 20 2 -1.</_>
        <_>
          14 10 10 2 2.</_></rects>
      <tilted>0</tilted></_>
    <_>
      <rects>
        <_>
          4 19 23 3 -1.</_>
        <_>
          4 20 23 1 2.</_></rects>
      <tilted>0</tilted></_>
    <_>
      <rects>
        <_>
          5 5 2 3 -1.</_>
        <_>
          5 6 2 1 2.</_></rects>
      <tilted>0</tilted></_>
    <_>
      <rects>
        <_>
          5 8 20 1 -1.</_>
        <_>
          15 8 10 1 2.</_></rects>
      <tilted>0</tilted></_>
    <_>
      <rects>
        <_>
          6 6 20 17 -1.</_>
        <_>
          16 6 10 17 2.</_></rects>
      <tilted>0</tilted></_>
    <_>
      <rects>
        <_>
          8 15 15 8 -1.</_>
        <_>
          13 15 5 8 2.</_></rects>
      <tilted>0</tilted></_>
    <_>
      <rects>
        <_>
          9 28 6 2 -1.</_>
        <_>
          11 28 2 2 2.</_></rects>
      <tilted>0</tilted></_>
    <_>
      <rects>
        <_>
          10 5 16 5 -1.</_>
        <_>
          18 5 8 5 2.</_></rects>
      <tilted>0</tilted></_>
    <_>
      <rects>
        <_>
          10 25 5 3 -1.</_>
        <_>
          10 26 5 1 2.</_></rects>
      <tilted>0</tilted></_>
    <_>
      <rects>
        <_>
          11 23 15 2 -1.</_>
        <_>
          16 23 5 2 2.</_></rects>
      <tilted>0</tilted></_>
    <_>
      <rects>
        <_>
          12 6 7 21 -1.</_>
        <_>
          12 13 7 7 2.</_></rects>
      <tilted>0</tilted></_>
    <_>
      <rects>
        <_>
          13 7 3 21 -1.</_>
        <_>
          13 14 3 7 2.</_></rects>
      <tilted>0</tilted></_>
    <_>
      <rects>
        <_>
          14 0 1 18 -1.</_>
        <_>
          14 9 1 9 2.</_></rects>
      <tilted>0</tilted></_>
    <_>
      <rects>
        <_>
          14 4 2 6 -1.</_>
        <_>
          14 6 2 2 2.</_></rects>
      <tilted>0</tilted></_>
    <_>
      <rects>
        <_>
          16 11 3 1 -1.</_>
        <_>
          17 11 1 1 2.</_></rects>
      <tilted>0</tilted></_>
    <_>
      <rects>
        <_>
          18 0 2 12 -1.</_>
        <_>
          18 4 2 4 2.</_></rects>
      <tilted>0</tilted></_>
    <_>
      <rects>
        <_>
          18 21 12 7 -1.</_>
        <_>
          24 21 6 7 2.</_></rects>
      <tilted>0</tilted></_>
    <_>
      <rects>
        <_>
          20 1 10 25 -1.</_>
        <_>
          25 1 5 25 2.</_></rects>
      <tilted>0</tilted></_>
    <_>
      <rects>
        <_>
          20 18 10 7 -1.</_>
        <_>
          25 18 5 7 2.</_></rects>
      <tilted>0</tilted></_>
    <_>
      <rects>
        <_>
          21 0 2 14 -1.</_>
        <_>
          21 7 2 7 2.</_></rects>
      <tilted>0</tilted></_>
    <_>
      <rects>
        <_>
          21 22 6 7 -1.</_>
        <_>
          24 22 3 7 2.</_></rects>
      <tilted>0</tilted></_>
    <_>
      <rects>
        <_>
          22 1 1 9 -1.</_>
        <_>
          22 4 1 3 2.</_></rects>
      <tilted>0</tilted></_>
    <_>
      <rects>
        <_>
          22 22 8 8 -1.</_>
        <_>
          22 22 4 4 2.</_>
        <_>
          26 26 4 4 2.</_></rects>
      <tilted>0</tilted></_>
    <_>
      <rects>
        <_>
          22 24 3 6 -1.</_>
        <_>
          22 27 3 3 2.</_></rects>
      <tilted>0</tilted></_>
    <_>
      <rects>
        <_>
          23 3 6 4 -1.</_>
        <_>
          23 3 3 2 2.</_>
        <_>
          26 5 3 2 2.</_></rects>
      <tilted>0</tilted></_>
    <_>
      <rects>
        <_>
          26 0 4 14 -1.</_>
        <_>
          26 0 2 7 2.</_>
        <_>
          28 7 2 7 2.</_></rects>
      <tilted>0</tilted></_></features></cascade>
</opencv_storage>
