<?xml version="1.0"?>
<opencv_storage>
<stage1>
  <maxWeakCount>6</maxWeakCount>
  <stageThreshold>8.2700467109680176e-01</stageThreshold>
  <weakClassifiers>
    <_>
      <internalNodes>
        0 -1 73987 -7.4529722332954407e-02</internalNodes>
      <leafValues>
        -1. 8.9024388790130615e-01</leafValues></_>
    <_>
      <internalNodes>
        0 -1 218659 -2.5448087602853775e-02</internalNodes>
      <leafValues>
        -9.8357164859771729e-01 5.7082200050354004e-01</leafValues></_>
    <_>
      <internalNodes>
        0 -1 23846 -1.8698956817388535e-02</internalNodes>
      <leafValues>
        8.0378621816635132e-01 -8.9806395769119263e-01</leafValues></_>
    <_>
      <internalNodes>
        0 -1 251056 -2.8893247246742249e-02</internalNodes>
      <leafValues>
        -8.3641022443771362e-01 6.5153193473815918e-01</leafValues></_>
    <_>
      <internalNodes>
        0 -1 235403 -2.2269593551754951e-02</internalNodes>
      <leafValues>
        -9.4765251874923706e-01 5.0479817390441895e-01</leafValues></_>
    <_>
      <internalNodes>
        0 -1 48598 -1.4151579700410366e-02</internalNodes>
      <leafValues>
        7.1680802106857300e-01 -8.9232736825942993e-01</leafValues></_></weakClassifiers></stage1>
</opencv_storage>
