<?xml version="1.0"?>
<opencv_storage>
<stage3>
  <maxWeakCount>8</maxWeakCount>
  <stageThreshold>8.9037293195724487e-01</stageThreshold>
  <weakClassifiers>
    <_>
      <internalNodes>
        0 -1 138749 5.2102677524089813e-02</internalNodes>
      <leafValues>
        -8.6666667461395264e-01 5.1999998092651367e-01</leafValues></_>
    <_>
      <internalNodes>
        0 -1 10353 -9.5230132341384888e-02</internalNodes>
      <leafValues>
        4.7757774591445923e-01 -6.6878169775009155e-01</leafValues></_>
    <_>
      <internalNodes>
        0 -1 86472 -4.6091515570878983e-02</internalNodes>
      <leafValues>
        -8.2563191652297974e-01 4.4064626097679138e-01</leafValues></_>
    <_>
      <internalNodes>
        0 -1 139801 -2.7605434879660606e-03</internalNodes>
      <leafValues>
        7.3026156425476074e-01 -5.7445639371871948e-01</leafValues></_>
    <_>
      <internalNodes>
        0 -1 372 -5.3718529641628265e-02</internalNodes>
      <leafValues>
        7.2192531824111938e-01 -5.5566245317459106e-01</leafValues></_>
    <_>
      <internalNodes>
        0 -1 58845 -5.0919581204652786e-02</internalNodes>
      <leafValues>
        -4.5302328467369080e-01 7.0825457572937012e-01</leafValues></_>
    <_>
      <internalNodes>
        0 -1 27197 4.4655678793787956e-03</internalNodes>
      <leafValues>
        -3.3927592635154724e-01 8.4732633829116821e-01</leafValues></_>
    <_>
      <internalNodes>
        0 -1 36842 9.1297546168789268e-04</internalNodes>
      <leafValues>
        -9.7331321239471436e-01 3.8582631945610046e-01</leafValues></_></weakClassifiers></stage3>
</opencv_storage>
