<?xml version="1.0"?>
<opencv_storage>
<stage4>
  <maxWeakCount>9</maxWeakCount>
  <stageThreshold>9.3644529581069946e-01</stageThreshold>
  <weakClassifiers>
    <_>
      <internalNodes>
        0 -1 47306 -1.8523828475736082e-04</internalNodes>
      <leafValues>
        -4.7517731785774231e-01 6.7676764726638794e-01</leafValues></_>
    <_>
      <internalNodes>
        0 -1 47017 -6.1116367578506470e-02</internalNodes>
      <leafValues>
        -4.6218243241310120e-01 9.1190624237060547e-01</leafValues></_>
    <_>
      <internalNodes>
        0 -1 83033 1.2765249994117767e-04</internalNodes>
      <leafValues>
        4.6517190337181091e-01 -8.6928308010101318e-01</leafValues></_>
    <_>
      <internalNodes>
        0 -1 29025 -2.0597374439239502e-01</internalNodes>
      <leafValues>
        -9.4215673208236694e-01 3.6209380626678467e-01</leafValues></_>
    <_>
      <internalNodes>
        0 -1 138580 6.4803034067153931e-02</internalNodes>
      <leafValues>
        -6.2873899936676025e-01 7.3339551687240601e-01</leafValues></_>
    <_>
      <internalNodes>
        0 -1 22695 -1.1272588744759560e-03</internalNodes>
      <leafValues>
        -8.0296069383621216e-01 4.3039545416831970e-01</leafValues></_>
    <_>
      <internalNodes>
        0 -1 154554 -4.7229308634996414e-02</internalNodes>
      <leafValues>
        -7.9245525598526001e-01 4.3448400497436523e-01</leafValues></_>
    <_>
      <internalNodes>
        0 -1 151240 -6.4671301515772939e-05</internalNodes>
      <leafValues>
        -7.5372356176376343e-01 3.7733072042465210e-01</leafValues></_>
    <_>
      <internalNodes>
        0 -1 153869 3.8226783275604248e-02</internalNodes>
      <leafValues>
        -6.9683760404586792e-01 5.1447927951812744e-01</leafValues></_></weakClassifiers></stage4>
</opencv_storage>
