<?xml version="1.0"?>
<opencv_storage>
<stage4>
  <maxWeakCount>11</maxWeakCount>
  <stageThreshold>-7.1624413132667542e-02</stageThreshold>
  <weakClassifiers>
    <_>
      <internalNodes>
        0 -1 93966 -1.6267672181129456e-01</internalNodes>
      <leafValues>
        -7.7272725105285645e-01 3.8364779949188232e-01</leafValues></_>
    <_>
      <internalNodes>
        0 -1 358826 2.0285449922084808e-02</internalNodes>
      <leafValues>
        1.8283841013908386e-01 -9.8825573921203613e-01</leafValues></_>
    <_>
      <internalNodes>
        0 -1 273512 -6.0746047645807266e-02</internalNodes>
      <leafValues>
        -8.8405966758728027e-01 2.1465435624122620e-01</leafValues></_>
    <_>
      <internalNodes>
        0 -1 374076 -2.2871352848596871e-04</internalNodes>
      <leafValues>
        7.7474224567413330e-01 -3.8517168164253235e-01</leafValues></_>
    <_>
      <internalNodes>
        0 -1 110965 -9.0049594291485846e-05</internalNodes>
      <leafValues>
        -6.5862590074539185e-01 4.1493350267410278e-01</leafValues></_>
    <_>
      <internalNodes>
        0 -1 117784 -4.5505598187446594e-02</internalNodes>
      <leafValues>
        -4.8243442177772522e-01 6.1680442094802856e-01</leafValues></_>
    <_>
      <internalNodes>
        0 -1 372605 1.7900113016366959e-02</internalNodes>
      <leafValues>
        -3.8901707530021667e-01 8.9159309864044189e-01</leafValues></_>
    <_>
      <internalNodes>
        0 -1 366633 -2.2291518689598888e-05</internalNodes>
      <leafValues>
        3.6189514398574829e-01 -9.9280029535293579e-01</leafValues></_>
    <_>
      <internalNodes>
        0 -1 196257 -6.9259345531463623e-02</internalNodes>
      <leafValues>
        -4.4452342391014099e-01 6.7798316478729248e-01</leafValues></_>
    <_>
      <internalNodes>
        0 -1 214 -5.4958974942564964e-03</internalNodes>
      <leafValues>
        7.1475881338119507e-01 -4.2413246631622314e-01</leafValues></_>
    <_>
      <internalNodes>
        0 -1 365713 4.5972107909619808e-03</internalNodes>
      <leafValues>
        -5.5595225095748901e-01 5.2955394983291626e-01</leafValues></_></weakClassifiers></stage4>
</opencv_storage>
