<?xml version="1.0"?>
<opencv_storage>
<stage2>
  <maxWeakCount>9</maxWeakCount>
  <stageThreshold>-4.8421707749366760e-01</stageThreshold>
  <weakClassifiers>
    <_>
      <internalNodes>
        0 -1 23973 -2.3238460719585419e-01</internalNodes>
      <leafValues>
        5.7291668653488159e-01 -9.7796142101287842e-01</leafValues></_>
    <_>
      <internalNodes>
        0 -1 372433 -1.1797897517681122e-02</internalNodes>
      <leafValues>
        5.4267394542694092e-01 -8.3331614732742310e-01</leafValues></_>
    <_>
      <internalNodes>
        0 -1 330913 -1.1270334944128990e-03</internalNodes>
      <leafValues>
        4.4389453530311584e-01 -9.7076594829559326e-01</leafValues></_>
    <_>
      <internalNodes>
        0 -1 77009 3.0203536152839661e-03</internalNodes>
      <leafValues>
        -6.1384975910186768e-01 7.9871600866317749e-01</leafValues></_>
    <_>
      <internalNodes>
        0 -1 126898 -5.7941749691963196e-03</internalNodes>
      <leafValues>
        -9.5347338914871216e-01 4.3396824598312378e-01</leafValues></_>
    <_>
      <internalNodes>
        0 -1 285157 -2.3782739299349487e-04</internalNodes>
      <leafValues>
        4.1450670361518860e-01 -9.9577069282531738e-01</leafValues></_>
    <_>
      <internalNodes>
        0 -1 22723 -4.7746762633323669e-02</internalNodes>
      <leafValues>
        8.3006179332733154e-01 -5.0870460271835327e-01</leafValues></_>
    <_>
      <internalNodes>
        0 -1 257972 -1.4175017178058624e-01</internalNodes>
      <leafValues>
        -8.2179272174835205e-01 4.6082696318626404e-01</leafValues></_>
    <_>
      <internalNodes>
        0 -1 102032 -1.4635205268859863e-02</internalNodes>
      <leafValues>
        4.0303584933280945e-01 -9.2202228307723999e-01</leafValues></_></weakClassifiers></stage2>
</opencv_storage>
