<?xml version="1.0"?>
<opencv_storage>
<stage2>
  <maxWeakCount>9</maxWeakCount>
  <stageThreshold>6.8139635026454926e-02</stageThreshold>
  <weakClassifiers>
    <_>
      <internalNodes>
        0 -1 46822 -2.7433903887867928e-02</internalNodes>
      <leafValues>
        6.7777776718139648e-01 -8.5500001907348633e-01</leafValues></_>
    <_>
      <internalNodes>
        0 -1 240393 -5.8064976474270225e-04</internalNodes>
      <leafValues>
        7.9584616422653198e-01 -7.2203195095062256e-01</leafValues></_>
    <_>
      <internalNodes>
        0 -1 25248 -1.3995516928844154e-04</internalNodes>
      <leafValues>
        4.8447549343109131e-01 -9.7560644149780273e-01</leafValues></_>
    <_>
      <internalNodes>
        0 -1 307199 -1.8478623824194074e-03</internalNodes>
      <leafValues>
        4.0048611164093018e-01 -1.</leafValues></_>
    <_>
      <internalNodes>
        0 -1 218232 1.8555976566858590e-04</internalNodes>
      <leafValues>
        -8.6952012777328491e-01 4.1837093234062195e-01</leafValues></_>
    <_>
      <internalNodes>
        0 -1 11607 1.2359139873296954e-05</internalNodes>
      <leafValues>
        -6.7860347032546997e-01 6.3700050115585327e-01</leafValues></_>
    <_>
      <internalNodes>
        0 -1 21200 -9.8907928913831711e-03</internalNodes>
      <leafValues>
        9.7898995876312256e-01 -5.1413047313690186e-01</leafValues></_>
    <_>
      <internalNodes>
        0 -1 101094 7.0449757913593203e-05</internalNodes>
      <leafValues>
        -5.0337964296340942e-01 9.0621322393417358e-01</leafValues></_>
    <_>
      <internalNodes>
        0 -1 306957 -1.7040400998666883e-03</internalNodes>
      <leafValues>
        5.2007454633712769e-01 -9.7622412443161011e-01</leafValues></_></weakClassifiers></stage2>
</opencv_storage>
