<?xml version="1.0"?>
<opencv_storage>
<stage0>
  <maxWeakCount>5</maxWeakCount>
  <stageThreshold>5.3983032703399658e-01</stageThreshold>
  <weakClassifiers>
    <_>
      <internalNodes>
        0 -1 340228 1.8023820593953133e-02</internalNodes>
      <leafValues>
        -9.8488664627075195e-01 9.3442624807357788e-01</leafValues></_>
    <_>
      <internalNodes>
        0 -1 23841 -9.0237874537706375e-03</internalNodes>
      <leafValues>
        8.6685162782669067e-01 -9.4736635684967041e-01</leafValues></_>
    <_>
      <internalNodes>
        0 -1 329300 4.5401796698570251e-02</internalNodes>
      <leafValues>
        -9.9514019489288330e-01 7.6192599534988403e-01</leafValues></_>
    <_>
      <internalNodes>
        0 -1 266582 1.8120221793651581e-02</internalNodes>
      <leafValues>
        -9.0110176801681519e-01 8.5421204566955566e-01</leafValues></_>
    <_>
      <internalNodes>
        0 -1 163707 1.2442994117736816e-01</internalNodes>
      <leafValues>
        -7.5047326087951660e-01 8.5594528913497925e-01</leafValues></_></weakClassifiers></stage0>
</opencv_storage>
