<?xml version="1.0"?>
<opencv_storage>
<cascade>
  <stageType>BOOST</stageType>
  <featureType>HAAR</featureType>
  <height>24</height>
  <width>24</width>
  <stageParams>
    <boostType>GAB</boostType>
    <minHitRate>9.9000000953674316e-01</minHitRate>
    <maxFalseAlarm>4.9999998882412910e-03</maxFalseAlarm>
    <weightTrimRate>9.4999999999999996e-01</weightTrimRate>
    <maxDepth>1</maxDepth>
    <maxWeakCount>100</maxWeakCount></stageParams>
  <featureParams>
    <maxCatCount>0</maxCatCount>
    <featSize>1</featSize>
    <mode>BASIC</mode></featureParams>
  <stageNum>5</stageNum>
  <stages>
    <!-- stage 0 -->
    <_>
      <maxWeakCount>3</maxWeakCount>
      <stageThreshold>8.5137397050857544e-01</stageThreshold>
      <weakClassifiers>
        <_>
          <internalNodes>
            0 -1 20 1.4440877363085747e-02</internalNodes>
          <leafValues>
            -9.9156117439270020e-01 9.3495935201644897e-01</leafValues></_>
        <_>
          <internalNodes>
            0 -1 5 -9.8828570917248726e-03</internalNodes>
          <leafValues>
            9.2593723535537720e-01 -9.7573202848434448e-01</leafValues></_>
        <_>
          <internalNodes>
            0 -1 28 1.4373464509844780e-02</internalNodes>
          <leafValues>
            -9.9216884374618530e-01 8.9214664697647095e-01</leafValues></_></weakClassifiers></_>
    <!-- stage 1 -->
    <_>
      <maxWeakCount>4</maxWeakCount>
      <stageThreshold>1.6420739889144897e+00</stageThreshold>
      <weakClassifiers>
        <_>
          <internalNodes>
            0 -1 1 -2.5641756057739258e+00</internalNodes>
          <leafValues>
            -1. 9.3548387289047241e-01</leafValues></_>
        <_>
          <internalNodes>
            0 -1 1 -2.5641756057739258e+00</internalNodes>
          <leafValues>
            -1. 6.4407980442047119e-01</leafValues></_>
        <_>
          <internalNodes>
            0 -1 3 -2.4641890078783035e-02</internalNodes>
          <leafValues>
            9.4726246595382690e-01 -8.2935690879821777e-01</leafValues></_>
        <_>
          <internalNodes>
            0 -1 0 3.2291185855865479e-01</internalNodes>
          <leafValues>
            -7.5836998224258423e-01 8.9186716079711914e-01</leafValues></_></weakClassifiers></_>
    <!-- stage 2 -->
    <_>
      <maxWeakCount>6</maxWeakCount>
      <stageThreshold>1.1715278625488281e+00</stageThreshold>
      <weakClassifiers>
        <_>
          <internalNodes>
            0 -1 19 8.3457179367542267e-02</internalNodes>
          <leafValues>
            -9.4470047950744629e-01 5.9440559148788452e-01</leafValues></_>
        <_>
          <internalNodes>
            0 -1 25 -5.5406196042895317e-04</internalNodes>
          <leafValues>
            8.4751605987548828e-01 -7.6665341854095459e-01</leafValues></_>
        <_>
          <internalNodes>
            0 -1 30 -2.0735259167850018e-03</internalNodes>
          <leafValues>
            7.1290493011474609e-01 -7.9649937152862549e-01</leafValues></_>
        <_>
          <internalNodes>
            0 -1 15 -5.8739155530929565e-02</internalNodes>
          <leafValues>
            5.6188774108886719e-01 -1.</leafValues></_>
        <_>
          <internalNodes>
            0 -1 29 -4.3838773854076862e-03</internalNodes>
          <leafValues>
            9.7127938270568848e-01 -5.9465605020523071e-01</leafValues></_>
        <_>
          <internalNodes>
            0 -1 13 3.9002532139420509e-04</internalNodes>
          <leafValues>
            -8.6067229509353638e-01 6.6363906860351563e-01</leafValues></_></weakClassifiers></_>
    <!-- stage 3 -->
    <_>
      <maxWeakCount>9</maxWeakCount>
      <stageThreshold>-6.9358505308628082e-02</stageThreshold>
      <weakClassifiers>
        <_>
          <internalNodes>
            0 -1 9 5.8001987636089325e-03</internalNodes>
          <leafValues>
            -6.6548043489456177e-01 8.4810125827789307e-01</leafValues></_>
        <_>
          <internalNodes>
            0 -1 31 -1.6956241801381111e-02</internalNodes>
          <leafValues>
            8.3359789848327637e-01 -4.9091637134552002e-01</leafValues></_>
        <_>
          <internalNodes>
            0 -1 27 4.5702971518039703e-02</internalNodes>
          <leafValues>
            4.4759714603424072e-01 -8.9523822069168091e-01</leafValues></_>
        <_>
          <internalNodes>
            0 -1 11 1.8038231646642089e-03</internalNodes>
          <leafValues>
            -4.7327429056167603e-01 8.6029917001724243e-01</leafValues></_>
        <_>
          <internalNodes>
            0 -1 22 -4.6204730868339539e-02</internalNodes>
          <leafValues>
            3.7581890821456909e-01 -9.8642367124557495e-01</leafValues></_>
        <_>
          <internalNodes>
            0 -1 2 -4.6311654150485992e-02</internalNodes>
          <leafValues>
            -9.3556523323059082e-01 3.4485459327697754e-01</leafValues></_>
        <_>
          <internalNodes>
            0 -1 4 1.8647748976945877e-02</internalNodes>
          <leafValues>
            4.0531378984451294e-01 -8.0136460065841675e-01</leafValues></_>
        <_>
          <internalNodes>
            0 -1 21 -1.8927516415715218e-02</internalNodes>
          <leafValues>
            3.9930963516235352e-01 -8.5616177320480347e-01</leafValues></_>
        <_>
          <internalNodes>
            0 -1 23 -1.6940275963861495e-04</internalNodes>
          <leafValues>
            9.5700371265411377e-01 -4.5667591691017151e-01</leafValues></_></weakClassifiers></_>
    <!-- stage 4 -->
    <_>
      <maxWeakCount>11</maxWeakCount>
      <stageThreshold>2.4994762241840363e-01</stageThreshold>
      <weakClassifiers>
        <_>
          <internalNodes>
            0 -1 8 -8.2507934421300888e-03</internalNodes>
          <leafValues>
            3.4131735563278198e-01 -9.1709846258163452e-01</leafValues></_>
        <_>
          <internalNodes>
            0 -1 26 2.5987459346652031e-02</internalNodes>
          <leafValues>
            -5.5069595575332642e-01 7.0410865545272827e-01</leafValues></_>
        <_>
          <internalNodes>
            0 -1 6 2.2877369076013565e-02</internalNodes>
          <leafValues>
            4.4740334153175354e-01 -7.3747795820236206e-01</leafValues></_>
        <_>
          <internalNodes>
            0 -1 18 -1.2552004773169756e-03</internalNodes>
          <leafValues>
            7.6204949617385864e-01 -4.8449471592903137e-01</leafValues></_>
        <_>
          <internalNodes>
            0 -1 10 -3.5087790340185165e-02</internalNodes>
          <leafValues>
            3.9613476395606995e-01 -9.2816293239593506e-01</leafValues></_>
        <_>
          <internalNodes>
            0 -1 17 -9.0173594653606415e-03</internalNodes>
          <leafValues>
            -4.5424827933311462e-01 7.3108971118927002e-01</leafValues></_>
        <_>
          <internalNodes>
            0 -1 16 -5.6091956794261932e-02</internalNodes>
          <leafValues>
            9.0059649944305420e-01 -4.3528309464454651e-01</leafValues></_>
        <_>
          <internalNodes>
            0 -1 7 -1.7353164366795681e-05</internalNodes>
          <leafValues>
            7.6562005281448364e-01 -3.1893858313560486e-01</leafValues></_>
        <_>
          <internalNodes>
            0 -1 24 2.0606932230293751e-04</internalNodes>
          <leafValues>
            5.4650920629501343e-01 -5.4851114749908447e-01</leafValues></_>
        <_>
          <internalNodes>
            0 -1 12 3.9304643869400024e-02</internalNodes>
          <leafValues>
            3.5338932275772095e-01 -7.5976550579071045e-01</leafValues></_>
        <_>
          <internalNodes>
            0 -1 14 1.1806914117187262e-03</internalNodes>
          <leafValues>
            -9.0915858745574951e-01 2.7546486258506775e-01</leafValues></_></weakClassifiers></_></stages>
  <features>
    <_>
      <rects>
        <_>
          0 0 24 20 -1.</_>
        <_>
          0 10 24 10 2.</_></rects>
      <tilted>0</tilted></_>
    <_>
      <rects>
        <_>
          0 3 24 21 -1.</_>
        <_>
          0 10 24 7 2.</_></rects>
      <tilted>0</tilted></_>
    <_>
      <rects>
        <_>
          0 4 24 8 -1.</_>
        <_>
          12 4 12 8 2.</_></rects>
      <tilted>0</tilted></_>
    <_>
      <rects>
        <_>
          0 12 6 5 -1.</_>
        <_>
          3 12 3 5 2.</_></rects>
      <tilted>0</tilted></_>
    <_>
      <rects>
        <_>
          0 12 24 10 -1.</_>
        <_>
          12 12 12 10 2.</_></rects>
      <tilted>0</tilted></_>
    <_>
      <rects>
        <_>
          0 17 8 2 -1.</_>
        <_>
          4 17 4 2 2.</_></rects>
      <tilted>0</tilted></_>
    <_>
      <rects>
        <_>
          0 17 24 7 -1.</_>
        <_>
          12 17 12 7 2.</_></rects>
      <tilted>0</tilted></_>
    <_>
      <rects>
        <_>
          0 18 1 6 -1.</_>
        <_>
          0 21 1 3 2.</_></rects>
      <tilted>0</tilted></_>
    <_>
      <rects>
        <_>
          0 18 12 1 -1.</_>
        <_>
          6 18 6 1 2.</_></rects>
      <tilted>0</tilted></_>
    <_>
      <rects>
        <_>
          1 0 6 8 -1.</_>
        <_>
          1 0 3 4 2.</_>
        <_>
          4 4 3 4 2.</_></rects>
      <tilted>0</tilted></_>
    <_>
      <rects>
        <_>
          1 19 21 1 -1.</_>
        <_>
          8 19 7 1 2.</_></rects>
      <tilted>0</tilted></_>
    <_>
      <rects>
        <_>
          2 1 6 5 -1.</_>
        <_>
          5 1 3 5 2.</_></rects>
      <tilted>0</tilted></_>
    <_>
      <rects>
        <_>
          4 16 3 8 -1.</_>
        <_>
          4 20 3 4 2.</_></rects>
      <tilted>0</tilted></_>
    <_>
      <rects>
        <_>
          4 19 1 4 -1.</_>
        <_>
          4 21 1 2 2.</_></rects>
      <tilted>0</tilted></_>
    <_>
      <rects>
        <_>
          5 18 19 4 -1.</_>
        <_>
          5 20 19 2 2.</_></rects>
      <tilted>0</tilted></_>
    <_>
      <rects>
        <_>
          7 7 3 17 -1.</_>
        <_>
          8 7 1 17 2.</_></rects>
      <tilted>0</tilted></_>
    <_>
      <rects>
        <_>
          9 0 5 8 -1.</_>
        <_>
          9 4 5 4 2.</_></rects>
      <tilted>0</tilted></_>
    <_>
      <rects>
        <_>
          9 2 3 3 -1.</_>
        <_>
          9 3 3 1 2.</_></rects>
      <tilted>0</tilted></_>
    <_>
      <rects>
        <_>
          9 3 9 4 -1.</_>
        <_>
          9 5 9 2 2.</_></rects>
      <tilted>0</tilted></_>
    <_>
      <rects>
        <_>
          10 16 12 8 -1.</_>
        <_>
          10 20 12 4 2.</_></rects>
      <tilted>0</tilted></_>
    <_>
      <rects>
        <_>
          10 17 14 5 -1.</_>
        <_>
          17 17 7 5 2.</_></rects>
      <tilted>0</tilted></_>
    <_>
      <rects>
        <_>
          11 17 12 1 -1.</_>
        <_>
          15 17 4 1 2.</_></rects>
      <tilted>0</tilted></_>
    <_>
      <rects>
        <_>
          12 8 3 14 -1.</_>
        <_>
          13 8 1 14 2.</_></rects>
      <tilted>0</tilted></_>
    <_>
      <rects>
        <_>
          12 11 8 9 -1.</_>
        <_>
          16 11 4 9 2.</_></rects>
      <tilted>0</tilted></_>
    <_>
      <rects>
        <_>
          12 19 4 5 -1.</_>
        <_>
          14 19 2 5 2.</_></rects>
      <tilted>0</tilted></_>
    <_>
      <rects>
        <_>
          14 3 8 5 -1.</_>
        <_>
          18 3 4 5 2.</_></rects>
      <tilted>0</tilted></_>
    <_>
      <rects>
        <_>
          15 6 8 16 -1.</_>
        <_>
          15 6 4 8 2.</_>
        <_>
          19 14 4 8 2.</_></rects>
      <tilted>0</tilted></_>
    <_>
      <rects>
        <_>
          15 8 3 16 -1.</_>
        <_>
          15 16 3 8 2.</_></rects>
      <tilted>0</tilted></_>
    <_>
      <rects>
        <_>
          15 17 7 6 -1.</_>
        <_>
          15 20 7 3 2.</_></rects>
      <tilted>0</tilted></_>
    <_>
      <rects>
        <_>
          17 1 6 8 -1.</_>
        <_>
          17 1 3 4 2.</_>
        <_>
          20 5 3 4 2.</_></rects>
      <tilted>0</tilted></_>
    <_>
      <rects>
        <_>
          20 18 4 6 -1.</_>
        <_>
          20 18 2 3 2.</_>
        <_>
          22 21 2 3 2.</_></rects>
      <tilted>0</tilted></_>
    <_>
      <rects>
        <_>
          22 5 2 3 -1.</_>
        <_>
          22 6 2 1 2.</_></rects>
      <tilted>0</tilted></_></features></cascade>
</opencv_storage>
