<?xml version="1.0"?>
<opencv_storage>
<cascade>
  <stageType>BOOST</stageType>
  <featureType>HAAR</featureType>
  <height>30</height>
  <width>30</width>
  <stageParams>
    <boostType>GAB</boostType>
    <minHitRate>9.9500000476837158e-01</minHitRate>
    <maxFalseAlarm>3.0000000260770321e-03</maxFalseAlarm>
    <weightTrimRate>9.4999999999999996e-01</weightTrimRate>
    <maxDepth>1</maxDepth>
    <maxWeakCount>100</maxWeakCount></stageParams>
  <featureParams>
    <maxCatCount>0</maxCatCount>
    <featSize>1</featSize>
    <mode>BASIC</mode></featureParams>
  <stageNum>5</stageNum>
  <stages>
    <!-- stage 0 -->
    <_>
      <maxWeakCount>3</maxWeakCount>
      <stageThreshold>8.3816969394683838e-01</stageThreshold>
      <weakClassifiers>
        <_>
          <internalNodes>
            0 -1 22 1.0142998769879341e-02</internalNodes>
          <leafValues>
            -9.9156117439270020e-01 9.3495935201644897e-01</leafValues></_>
        <_>
          <internalNodes>
            0 -1 6 -9.0237874537706375e-03</internalNodes>
          <leafValues>
            9.4030767679214478e-01 -9.7582441568374634e-01</leafValues></_>
        <_>
          <internalNodes>
            0 -1 31 1.3431997504085302e-03</internalNodes>
          <leafValues>
            -9.7658151388168335e-01 8.8942319154739380e-01</leafValues></_></weakClassifiers></_>
    <!-- stage 1 -->
    <_>
      <maxWeakCount>5</maxWeakCount>
      <stageThreshold>5.9727704524993896e-01</stageThreshold>
      <weakClassifiers>
        <_>
          <internalNodes>
            0 -1 0 -1.7749012708663940e+00</internalNodes>
          <leafValues>
            -1. 8.8976377248764038e-01</leafValues></_>
        <_>
          <internalNodes>
            0 -1 30 4.2951222509145737e-02</internalNodes>
          <leafValues>
            -8.4304165840148926e-01 9.3015396595001221e-01</leafValues></_>
        <_>
          <internalNodes>
            0 -1 0 -1.7749012708663940e+00</internalNodes>
          <leafValues>
            -1. 6.6213089227676392e-01</leafValues></_>
        <_>
          <internalNodes>
            0 -1 7 -1.3195690698921680e-02</internalNodes>
          <leafValues>
            6.6788297891616821e-01 -8.7912607192993164e-01</leafValues></_>
        <_>
          <internalNodes>
            0 -1 3 2.1922221779823303e-01</internalNodes>
          <leafValues>
            -7.7945894002914429e-01 8.6934196949005127e-01</leafValues></_></weakClassifiers></_>
    <!-- stage 2 -->
    <_>
      <maxWeakCount>9</maxWeakCount>
      <stageThreshold>3.5700273513793945e-01</stageThreshold>
      <weakClassifiers>
        <_>
          <internalNodes>
            0 -1 26 -3.8348499219864607e-04</internalNodes>
          <leafValues>
            6.9523811340332031e-01 -7.5686275959014893e-01</leafValues></_>
        <_>
          <internalNodes>
            0 -1 5 -1.0993967298418283e-03</internalNodes>
          <leafValues>
            7.0889037847518921e-01 -7.6523357629776001e-01</leafValues></_>
        <_>
          <internalNodes>
            0 -1 24 -1.9136756891384721e-03</internalNodes>
          <leafValues>
            4.7337466478347778e-01 -1.</leafValues></_>
        <_>
          <internalNodes>
            0 -1 17 9.3321141321212053e-05</internalNodes>
          <leafValues>
            -5.7353496551513672e-01 8.2581734657287598e-01</leafValues></_>
        <_>
          <internalNodes>
            0 -1 34 2.2323911543935537e-03</internalNodes>
          <leafValues>
            -6.6550421714782715e-01 6.3490587472915649e-01</leafValues></_>
        <_>
          <internalNodes>
            0 -1 11 4.3872016249224544e-04</internalNodes>
          <leafValues>
            -6.8720018863677979e-01 7.2948348522186279e-01</leafValues></_>
        <_>
          <internalNodes>
            0 -1 29 -2.0450947340577841e-04</internalNodes>
          <leafValues>
            8.0432087182998657e-01 -5.6178867816925049e-01</leafValues></_>
        <_>
          <internalNodes>
            0 -1 18 1.4344286173582077e-03</internalNodes>
          <leafValues>
            -6.9904536008834839e-01 6.3292956352233887e-01</leafValues></_>
        <_>
          <internalNodes>
            0 -1 23 -3.7097684107720852e-03</internalNodes>
          <leafValues>
            4.4478690624237061e-01 -9.3348503112792969e-01</leafValues></_></weakClassifiers></_>
    <!-- stage 3 -->
    <_>
      <maxWeakCount>10</maxWeakCount>
      <stageThreshold>-2.0625758171081543e-01</stageThreshold>
      <weakClassifiers>
        <_>
          <internalNodes>
            0 -1 1 -7.2225956246256828e-03</internalNodes>
          <leafValues>
            -7.1747213602066040e-01 8.0219781398773193e-01</leafValues></_>
        <_>
          <internalNodes>
            0 -1 33 4.5485217124223709e-03</internalNodes>
          <leafValues>
            -8.4035927057266235e-01 6.2528681755065918e-01</leafValues></_>
        <_>
          <internalNodes>
            0 -1 9 -3.8769724778831005e-03</internalNodes>
          <leafValues>
            4.3269765377044678e-01 -8.9817261695861816e-01</leafValues></_>
        <_>
          <internalNodes>
            0 -1 21 2.0572673529386520e-02</internalNodes>
          <leafValues>
            -8.2578337192535400e-01 4.6005076169967651e-01</leafValues></_>
        <_>
          <internalNodes>
            0 -1 15 5.2996594458818436e-03</internalNodes>
          <leafValues>
            -4.7137033939361572e-01 9.0133845806121826e-01</leafValues></_>
        <_>
          <internalNodes>
            0 -1 4 -1.7538631800562143e-03</internalNodes>
          <leafValues>
            9.1141146421432495e-01 -4.4967067241668701e-01</leafValues></_>
        <_>
          <internalNodes>
            0 -1 10 4.2642345651984215e-03</internalNodes>
          <leafValues>
            -7.7808099985122681e-01 5.7568311691284180e-01</leafValues></_>
        <_>
          <internalNodes>
            0 -1 28 -5.0678639672696590e-03</internalNodes>
          <leafValues>
            -9.4786083698272705e-01 4.6450591087341309e-01</leafValues></_>
        <_>
          <internalNodes>
            0 -1 32 -4.4004971277900040e-04</internalNodes>
          <leafValues>
            8.1727963685989380e-01 -4.9919617176055908e-01</leafValues></_>
        <_>
          <internalNodes>
            0 -1 35 4.4193016947247088e-05</internalNodes>
          <leafValues>
            -6.5764653682708740e-01 5.6319922208786011e-01</leafValues></_></weakClassifiers></_>
    <!-- stage 4 -->
    <_>
      <maxWeakCount>10</maxWeakCount>
      <stageThreshold>8.1441968679428101e-01</stageThreshold>
      <weakClassifiers>
        <_>
          <internalNodes>
            0 -1 13 -5.6133154779672623e-02</internalNodes>
          <leafValues>
            5.0649350881576538e-01 -9.6116507053375244e-01</leafValues></_>
        <_>
          <internalNodes>
            0 -1 2 4.5870389789342880e-02</internalNodes>
          <leafValues>
            -5.5559152364730835e-01 9.8123759031295776e-01</leafValues></_>
        <_>
          <internalNodes>
            0 -1 12 -5.9177685528993607e-02</internalNodes>
          <leafValues>
            5.4970484972000122e-01 -7.9477572441101074e-01</leafValues></_>
        <_>
          <internalNodes>
            0 -1 8 -2.3977857083082199e-02</internalNodes>
          <leafValues>
            4.6077936887741089e-01 -8.9395231008529663e-01</leafValues></_>
        <_>
          <internalNodes>
            0 -1 16 3.0091450753388926e-05</internalNodes>
          <leafValues>
            -5.5910235643386841e-01 6.9493752717971802e-01</leafValues></_>
        <_>
          <internalNodes>
            0 -1 25 -1.3603610917925835e-02</internalNodes>
          <leafValues>
            4.3810215592384338e-01 -9.0716505050659180e-01</leafValues></_>
        <_>
          <internalNodes>
            0 -1 20 -4.9431656952947378e-04</internalNodes>
          <leafValues>
            -9.2337864637374878e-01 3.5531318187713623e-01</leafValues></_>
        <_>
          <internalNodes>
            0 -1 14 -5.8481529355049133e-02</internalNodes>
          <leafValues>
            2.5761348009109497e-01 -9.4089579582214355e-01</leafValues></_>
        <_>
          <internalNodes>
            0 -1 27 1.1063764803111553e-02</internalNodes>
          <leafValues>
            2.2934634983539581e-01 -1.</leafValues></_>
        <_>
          <internalNodes>
            0 -1 19 -2.7465848252177238e-03</internalNodes>
          <leafValues>
            -6.5668928623199463e-01 4.9829804897308350e-01</leafValues></_></weakClassifiers></_></stages>
  <features>
    <_>
      <rects>
        <_>
          0 0 21 30 -1.</_>
        <_>
          7 0 7 30 2.</_></rects>
      <tilted>0</tilted></_>
    <_>
      <rects>
        <_>
          0 0 27 3 -1.</_>
        <_>
          9 0 9 3 2.</_></rects>
      <tilted>0</tilted></_>
    <_>
      <rects>
        <_>
          0 0 18 14 -1.</_>
        <_>
          9 0 9 14 2.</_></rects>
      <tilted>0</tilted></_>
    <_>
      <rects>
        <_>
          0 0 24 18 -1.</_>
        <_>
          0 9 24 9 2.</_></rects>
      <tilted>0</tilted></_>
    <_>
      <rects>
        <_>
          0 4 25 6 -1.</_>
        <_>
          0 7 25 3 2.</_></rects>
      <tilted>0</tilted></_>
    <_>
      <rects>
        <_>
          0 15 6 1 -1.</_>
        <_>
          3 15 3 1 2.</_></rects>
      <tilted>0</tilted></_>
    <_>
      <rects>
        <_>
          0 21 10 3 -1.</_>
        <_>
          5 21 5 3 2.</_></rects>
      <tilted>0</tilted></_>
    <_>
      <rects>
        <_>
          0 22 10 3 -1.</_>
        <_>
          5 22 5 3 2.</_></rects>
      <tilted>0</tilted></_>
    <_>
      <rects>
        <_>
          0 22 14 8 -1.</_>
        <_>
          7 22 7 8 2.</_></rects>
      <tilted>0</tilted></_>
    <_>
      <rects>
        <_>
          0 22 26 1 -1.</_>
        <_>
          13 22 13 1 2.</_></rects>
      <tilted>0</tilted></_>
    <_>
      <rects>
        <_>
          0 24 10 6 -1.</_>
        <_>
          0 24 5 3 2.</_>
        <_>
          5 27 5 3 2.</_></rects>
      <tilted>0</tilted></_>
    <_>
      <rects>
        <_>
          1 6 15 12 -1.</_>
        <_>
          1 12 15 6 2.</_></rects>
      <tilted>0</tilted></_>
    <_>
      <rects>
        <_>
          2 18 26 3 -1.</_>
        <_>
          2 19 26 1 2.</_></rects>
      <tilted>0</tilted></_>
    <_>
      <rects>
        <_>
          2 21 27 2 -1.</_>
        <_>
          11 21 9 2 2.</_></rects>
      <tilted>0</tilted></_>
    <_>
      <rects>
        <_>
          2 24 27 2 -1.</_>
        <_>
          11 24 9 2 2.</_></rects>
      <tilted>0</tilted></_>
    <_>
      <rects>
        <_>
          3 1 8 10 -1.</_>
        <_>
          3 1 4 5 2.</_>
        <_>
          7 6 4 5 2.</_></rects>
      <tilted>0</tilted></_>
    <_>
      <rects>
        <_>
          3 3 4 4 -1.</_>
        <_>
          5 3 2 4 2.</_></rects>
      <tilted>0</tilted></_>
    <_>
      <rects>
        <_>
          4 0 4 8 -1.</_>
        <_>
          4 0 2 4 2.</_>
        <_>
          6 4 2 4 2.</_></rects>
      <tilted>0</tilted></_>
    <_>
      <rects>
        <_>
          4 25 3 4 -1.</_>
        <_>
          4 27 3 2 2.</_></rects>
      <tilted>0</tilted></_>
    <_>
      <rects>
        <_>
          5 5 12 24 -1.</_>
        <_>
          11 5 6 24 2.</_></rects>
      <tilted>0</tilted></_>
    <_>
      <rects>
        <_>
          7 7 8 14 -1.</_>
        <_>
          7 7 4 7 2.</_>
        <_>
          11 14 4 7 2.</_></rects>
      <tilted>0</tilted></_>
    <_>
      <rects>
        <_>
          10 21 20 5 -1.</_>
        <_>
          20 21 10 5 2.</_></rects>
      <tilted>0</tilted></_>
    <_>
      <rects>
        <_>
          10 22 20 5 -1.</_>
        <_>
          20 22 10 5 2.</_></rects>
      <tilted>0</tilted></_>
    <_>
      <rects>
        <_>
          11 18 1 6 -1.</_>
        <_>
          11 20 1 2 2.</_></rects>
      <tilted>0</tilted></_>
    <_>
      <rects>
        <_>
          11 22 1 3 -1.</_>
        <_>
          11 23 1 1 2.</_></rects>
      <tilted>0</tilted></_>
    <_>
      <rects>
        <_>
          13 22 15 1 -1.</_>
        <_>
          18 22 5 1 2.</_></rects>
      <tilted>0</tilted></_>
    <_>
      <rects>
        <_>
          15 3 12 7 -1.</_>
        <_>
          21 3 6 7 2.</_></rects>
      <tilted>0</tilted></_>
    <_>
      <rects>
        <_>
          20 16 1 14 -1.</_>
        <_>
          20 23 1 7 2.</_></rects>
      <tilted>0</tilted></_>
    <_>
      <rects>
        <_>
          21 24 1 3 -1.</_>
        <_>
          21 25 1 1 2.</_></rects>
      <tilted>0</tilted></_>
    <_>
      <rects>
        <_>
          22 0 4 12 -1.</_>
        <_>
          22 0 2 6 2.</_>
        <_>
          24 6 2 6 2.</_></rects>
      <tilted>0</tilted></_>
    <_>
      <rects>
        <_>
          22 15 8 12 -1.</_>
        <_>
          26 15 4 12 2.</_></rects>
      <tilted>0</tilted></_>
    <_>
      <rects>
        <_>
          22 21 1 8 -1.</_>
        <_>
          22 25 1 4 2.</_></rects>
      <tilted>0</tilted></_>
    <_>
      <rects>
        <_>
          23 3 6 6 -1.</_>
        <_>
          23 3 3 3 2.</_>
        <_>
          26 6 3 3 2.</_></rects>
      <tilted>0</tilted></_>
    <_>
      <rects>
        <_>
          24 0 6 20 -1.</_>
        <_>
          24 0 3 10 2.</_>
        <_>
          27 10 3 10 2.</_></rects>
      <tilted>0</tilted></_>
    <_>
      <rects>
        <_>
          24 23 6 1 -1.</_>
        <_>
          27 23 3 1 2.</_></rects>
      <tilted>0</tilted></_>
    <_>
      <rects>
        <_>
          27 25 3 2 -1.</_>
        <_>
          27 26 3 1 2.</_></rects>
      <tilted>0</tilted></_></features></cascade>
</opencv_storage>
