<?xml version="1.0"?>
<opencv_storage>
<stage3>
  <maxWeakCount>10</maxWeakCount>
  <stageThreshold>-2.0625758171081543e-01</stageThreshold>
  <weakClassifiers>
    <_>
      <internalNodes>
        0 -1 812 -7.2225956246256828e-03</internalNodes>
      <leafValues>
        -7.1747213602066040e-01 8.0219781398773193e-01</leafValues></_>
    <_>
      <internalNodes>
        0 -1 378659 4.5485217124223709e-03</internalNodes>
      <leafValues>
        -8.4035927057266235e-01 6.2528681755065918e-01</leafValues></_>
    <_>
      <internalNodes>
        0 -1 24506 -3.8769724778831005e-03</internalNodes>
      <leafValues>
        4.3269765377044678e-01 -8.9817261695861816e-01</leafValues></_>
    <_>
      <internalNodes>
        0 -1 234509 2.0572673529386520e-02</internalNodes>
      <leafValues>
        -8.2578337192535400e-01 4.6005076169967651e-01</leafValues></_>
    <_>
      <internalNodes>
        0 -1 76719 5.2996594458818436e-03</internalNodes>
      <leafValues>
        -4.7137033939361572e-01 9.0133845806121826e-01</leafValues></_>
    <_>
      <internalNodes>
        0 -1 7833 -1.7538631800562143e-03</internalNodes>
      <leafValues>
        9.1141146421432495e-01 -4.4967067241668701e-01</leafValues></_>
    <_>
      <internalNodes>
        0 -1 25113 4.2642345651984215e-03</internalNodes>
      <leafValues>
        -7.7808099985122681e-01 5.7568311691284180e-01</leafValues></_>
    <_>
      <internalNodes>
        0 -1 365874 -5.0678639672696590e-03</internalNodes>
      <leafValues>
        -9.4786083698272705e-01 4.6450591087341309e-01</leafValues></_>
    <_>
      <internalNodes>
        0 -1 374080 -4.4004971277900040e-04</internalNodes>
      <leafValues>
        8.1727963685989380e-01 -4.9919617176055908e-01</leafValues></_>
    <_>
      <internalNodes>
        0 -1 392880 4.4193016947247088e-05</internalNodes>
      <leafValues>
        -6.5764653682708740e-01 5.6319922208786011e-01</leafValues></_></weakClassifiers></stage3>
</opencv_storage>
